<?xml version='1.0' encoding='UTF-8'?>
<BIF VERSION="0.3">
  <NETWORK>
    <NAME>UNTITLED</NAME>
    <VARIABLE TYPE="nature">
      <NAME>cole_area_ubicacion</NAME>
      <OUTCOME>RURAL</OUTCOME>
      <OUTCOME>URBANO</OUTCOME>
      <PROPERTY/>
    </VARIABLE>
    <VARIABLE TYPE="nature">
      <NAME>cole_caracter</NAME>
      <OUTCOME>ACAD_MICO</OUTCOME>
      <OUTCOME>NO_APLICA</OUTCOME>
      <OUTCOME>T_CNICO</OUTCOME>
      <OUTCOME>T_CNICO_ACAD_MICO</OUTCOME>
      <PROPERTY/>
    </VARIABLE>
    <VARIABLE TYPE="nature">
      <NAME>cole_depto_ubicacion</NAME>
      <OUTCOME>ANTIOQUIA</OUTCOME>
      <OUTCOME>BOGOT_</OUTCOME>
      <PROPERTY/>
    </VARIABLE>
    <VARIABLE TYPE="nature">
      <NAME>cole_jornada</NAME>
      <OUTCOME>COMPLETA</OUTCOME>
      <OUTCOME>MA_ANA</OUTCOME>
      <OUTCOME>NOCHE</OUTCOME>
      <OUTCOME>SABATINA</OUTCOME>
      <OUTCOME>TARDE</OUTCOME>
      <OUTCOME>UNICA</OUTCOME>
      <PROPERTY/>
    </VARIABLE>
    <VARIABLE TYPE="nature">
      <NAME>cole_mcpio_ubicacion</NAME>
      <OUTCOME>ABEJORRAL</OUTCOME>
      <OUTCOME>AMAG_</OUTCOME>
      <OUTCOME>AMALFI</OUTCOME>
      <OUTCOME>ANDES</OUTCOME>
      <OUTCOME>APARTAD_</OUTCOME>
      <OUTCOME>ARBOLETES</OUTCOME>
      <OUTCOME>BARBOSA</OUTCOME>
      <OUTCOME>BELLO</OUTCOME>
      <OUTCOME>BOGOT_D_C_</OUTCOME>
      <OUTCOME>CALDAS</OUTCOME>
      <OUTCOME>CAREPA</OUTCOME>
      <OUTCOME>CAUCASIA</OUTCOME>
      <OUTCOME>CA_ASGORDAS</OUTCOME>
      <OUTCOME>CHIGOROD_</OUTCOME>
      <OUTCOME>CISNEROS</OUTCOME>
      <OUTCOME>CIUDAD_BOL_VAR</OUTCOME>
      <OUTCOME>COPACABANA</OUTCOME>
      <OUTCOME>C_CERES</OUTCOME>
      <OUTCOME>DABEIBA</OUTCOME>
      <OUTCOME>DONMAT_AS</OUTCOME>
      <OUTCOME>EL_BAGRE</OUTCOME>
      <OUTCOME>EL_CARMEN_DE_VIBORAL</OUTCOME>
      <OUTCOME>ENVIGADO</OUTCOME>
      <OUTCOME>FRONTINO</OUTCOME>
      <OUTCOME>GIRARDOTA</OUTCOME>
      <OUTCOME>GRANADA</OUTCOME>
      <OUTCOME>GUARNE</OUTCOME>
      <OUTCOME>G_MEZ_PLATA</OUTCOME>
      <OUTCOME>ITAG_</OUTCOME>
      <OUTCOME>ITUANGO</OUTCOME>
      <OUTCOME>JERIC_</OUTCOME>
      <OUTCOME>LA_CEJA</OUTCOME>
      <OUTCOME>LA_ESTRELLA</OUTCOME>
      <OUTCOME>MACEO</OUTCOME>
      <OUTCOME>MARINILLA</OUTCOME>
      <OUTCOME>MEDELL_N</OUTCOME>
      <OUTCOME>MUTAT_</OUTCOME>
      <OUTCOME>NECH_</OUTCOME>
      <OUTCOME>NECOCL_</OUTCOME>
      <OUTCOME>PEQUE</OUTCOME>
      <OUTCOME>PE_OL</OUTCOME>
      <OUTCOME>PUERTO_BERR_O</OUTCOME>
      <OUTCOME>PUERTO_TRIUNFO</OUTCOME>
      <OUTCOME>REMEDIOS</OUTCOME>
      <OUTCOME>RIONEGRO</OUTCOME>
      <OUTCOME>SABANETA</OUTCOME>
      <OUTCOME>SAN_CARLOS</OUTCOME>
      <OUTCOME>SAN_JUAN_DE_URAB_</OUTCOME>
      <OUTCOME>SAN_PEDRO_DE_LOS_MILAGROS</OUTCOME>
      <OUTCOME>SAN_PEDRO_DE_URAB_</OUTCOME>
      <OUTCOME>SAN_ROQUE</OUTCOME>
      <OUTCOME>SANTA_B_RBARA</OUTCOME>
      <OUTCOME>SANTA_F_DE_ANTIOQUIA</OUTCOME>
      <OUTCOME>SANTA_ROSA_DE_OSOS</OUTCOME>
      <OUTCOME>SANTO_DOMINGO</OUTCOME>
      <OUTCOME>SEGOVIA</OUTCOME>
      <OUTCOME>SONS_N</OUTCOME>
      <OUTCOME>SOPETR_N</OUTCOME>
      <OUTCOME>TURBO</OUTCOME>
      <OUTCOME>T_MESIS</OUTCOME>
      <OUTCOME>URRAO</OUTCOME>
      <OUTCOME>VALPARA_SO</OUTCOME>
      <OUTCOME>VEGACH_</OUTCOME>
      <OUTCOME>VIG_A_DEL_FUERTE</OUTCOME>
      <OUTCOME>YARUMAL</OUTCOME>
      <OUTCOME>YOLOMB_</OUTCOME>
      <OUTCOME>ZARAGOZA</OUTCOME>
      <PROPERTY/>
    </VARIABLE>
    <VARIABLE TYPE="nature">
      <NAME>cole_naturaleza</NAME>
      <OUTCOME>NO_OFICIAL</OUTCOME>
      <OUTCOME>OFICIAL</OUTCOME>
      <PROPERTY/>
    </VARIABLE>
    <VARIABLE TYPE="nature">
      <NAME>punt_global</NAME>
      <OUTCOME>101_200</OUTCOME>
      <OUTCOME>201_300</OUTCOME>
      <OUTCOME>301_400</OUTCOME>
      <OUTCOME>401_500</OUTCOME>
      <PROPERTY/>
    </VARIABLE>
    <DEFINITION>
      <FOR>cole_area_ubicacion</FOR>
      <GIVEN>cole_mcpio_ubicacion</GIVEN>
      <TABLE>0.46706586826347307 0.5329341317365269 0.028708133971291867 0.9712918660287081 0.0 1.0 0.5970695970695971 0.40293040293040294 0.1632492113564669 0.8367507886435331 0.4603174603174603 0.5396825396825397 0.2838983050847458 0.7161016949152542 0.010701841712294675 0.9892981582877053 0.0076070229434806935 0.9923929770565193 0.1552346570397112 0.8447653429602888 0.16919739696312364 0.8308026030368764 0.038338658146964855 0.9616613418530351 0.43333333333333335 0.5666666666666667 0.24806201550387597 0.751937984496124 0.10465116279069768 0.8953488372093024 0.3230769230769231 0.676923076923077 0.059113300492610835 0.9408866995073891 0.5095238095238095 0.49047619047619045 0.5372340425531915 0.4627659574468085 0.08571428571428572 0.9142857142857143 0.13043478260869565 0.8695652173913043 0.09345794392523364 0.9065420560747663 0.08892128279883382 0.9110787172011662 0.20809248554913296 0.791907514450867 0.0 1.0 0.12857142857142856 0.8714285714285714 0.24535315985130113 0.7546468401486989 0.2028985507246377 0.7971014492753623 0.083843617522374 0.916156382477626 0.3497536945812808 0.6502463054187192 0.3237410071942446 0.6762589928057554 0.1693121693121693 0.8306878306878307 0.02295918367346939 0.9770408163265306 0.31645569620253167 0.6835443037974683 0.1306930693069307 0.8693069306930693 0.03501636742386668 0.9649836325761333 0.0 1.0 0.0 1.0 0.5434343434343434 0.45656565656565656 0.0 1.0 0.2935323383084577 0.7064676616915423 0.04568527918781726 0.9543147208121827 0.5925925925925926 0.4074074074074074 0.4222222222222222 0.5777777777777777 0.3061062648691515 0.6938937351308485 0.22687224669603523 0.7731277533039648 0.49700598802395207 0.5029940119760479 0.4381443298969072 0.5618556701030928 0.20920502092050208 0.7907949790794979 0.109375 0.890625 0.17073170731707318 0.8292682926829268 0.6378378378378379 0.3621621621621622 0.0 1.0 0.19047619047619047 0.8095238095238095 0.16666666666666666 0.8333333333333334 0.0 1.0 0.6877637130801688 0.31223628691983124 0.20652173913043478 0.7934782608695652 0.38930348258706465 0.6106965174129353 0.2088607594936709 0.7911392405063291 0.35240963855421686 0.6475903614457831 0.08695652173913043 0.9130434782608695 0.5517241379310345 0.4482758620689655 0.44594594594594594 0.5540540540540541 0.10180995475113122 0.8981900452488688 0.24878048780487805 0.751219512195122 0.1111111111111111 0.8888888888888888 </TABLE>
    </DEFINITION>
    <DEFINITION>
      <FOR>cole_caracter</FOR>
      <TABLE>0.6948667553037747 0.0005973370329691504 0.032246565312060424 0.2722893423511956 </TABLE>
    </DEFINITION>
    <DEFINITION>
      <FOR>cole_depto_ubicacion</FOR>
      <TABLE>0.4490625662369694 0.5509374337630306 </TABLE>
    </DEFINITION>
    <DEFINITION>
      <FOR>cole_jornada</FOR>
      <GIVEN>cole_caracter</GIVEN>
      <GIVEN>cole_naturaleza</GIVEN>
      <TABLE>0.7287595287595288 0.14355509355509355 0.02072072072072072 0.04092169092169092 0.012681912681912683 0.05336105336105336 0.02993319926958371 0.4365624205441139 0.06287127568592099 0.03640524235489911 0.21639738344543835 0.2178304787000439 1.0 0.0 0.0 0.0 0.0 0.0 0.16666666666666666 0.16666666666666666 0.16666666666666666 0.16666666666666666 0.16666666666666666 0.16666666666666666 0.7363505747126436 0.11135057471264367 0.0 0.0 0.031609195402298854 0.1206896551724138 0.03887468030690537 0.3948849104859335 0.03631713554987212 0.12838874680306905 0.17340153452685422 0.22813299232736572 0.49757113115891743 0.11380985426786953 0.014920194309507287 0.17730742539902844 0.034004163775156145 0.16238723108952116 0.08806146572104019 0.2707643814026793 0.06477541371158392 0.045193065405831366 0.10070921985815603 0.43049645390070923 </TABLE>
    </DEFINITION>
    <DEFINITION>
      <FOR>cole_mcpio_ubicacion</FOR>
      <GIVEN>cole_depto_ubicacion</GIVEN>
      <TABLE>0.003582922119716799 0.004484016305513839 0.0037545591074876635 0.005857112207680755 0.027204462561682043 0.006758206393477795 0.010126582278481013 0.08620467710791675 0.0 0.011885861403132376 0.009890581420296073 0.020145891439605233 0.003861832224844454 0.011070585711220769 0.0018450976185367947 0.0027891010512765503 0.017421154258742758 0.004505470928985196 0.004033469212615318 0.0037545591074876635 0.011842952156189659 0.011478223557176571 0.029435743402703284 0.0037116498605449474 0.004934563398412358 0.0015018236429950654 0.005771293713795323 0.0014803690195237073 0.0455481656296932 0.004355288564685689 0.0029821926625187727 0.01216477150826003 0.008410212400772367 0.001694915254237288 0.010834584853035829 0.4325681184295216 0.0015232782664664235 0.0018880068654795108 0.010620038618322248 0.00111564042051062 0.004312379317742973 0.008453121647715082 0.0017378245011800042 0.005792748337266681 0.027054280197382537 0.009740399055996567 0.003582922119716799 0.004162196953443467 0.00512765500965458 0.0027461918043338337 0.0043981978116284055 0.0039691053422012445 0.003025101909461489 0.004956018021883716 0.0005149109633125939 0.006543660158764213 0.005084745762711864 0.003947650718729886 0.017249517270971893 0.003389830508474576 0.007122934992490882 0.0009869126796824715 0.0037331044840163054 0.0015876421368804978 0.00948294357434027 0.0043981978116284055 0.003861832224844454 0.0 0.0 0.0 0.0 0.0 0.0 0.0 0.0 1.0 0.0 0.0 0.0 0.0 0.0 0.0 0.0 0.0 0.0 0.0 0.0 0.0 0.0 0.0 0.0 0.0 0.0 0.0 0.0 0.0 0.0 0.0 0.0 0.0 0.0 0.0 0.0 0.0 0.0 0.0 0.0 0.0 0.0 0.0 0.0 0.0 0.0 0.0 0.0 0.0 0.0 0.0 0.0 0.0 0.0 0.0 0.0 0.0 0.0 0.0 0.0 0.0 0.0 0.0 0.0 0.0 0.0 0.0 </TABLE>
    </DEFINITION>
    <DEFINITION>
      <FOR>cole_naturaleza</FOR>
      <TABLE>0.31982580881361156 0.6801741911863884 </TABLE>
    </DEFINITION>
    <DEFINITION>
      <FOR>punt_global</FOR>
      <GIVEN>cole_area_ubicacion</GIVEN>
      <GIVEN>cole_jornada</GIVEN>
      <TABLE>0.23019431988041852 0.593423019431988 0.17389138016940708 0.002491280518186348 0.317989417989418 0.6026455026455027 0.07936507936507936 0.0 0.5555555555555556 0.43434343434343436 0.010101010101010102 0.0 0.6054216867469879 0.39156626506024095 0.0030120481927710845 0.0 0.225531914893617 0.7 0.07446808510638298 0.0 0.11534795042897998 0.665395614871306 0.21734985700667303 0.0019065776930409914 0.028427162849872775 0.46529103053435117 0.49972169211195927 0.0065601145038167935 0.12269791915809615 0.6980216626234326 0.1785628865274883 0.0007175316909830184 0.3616636528028933 0.605384769941732 0.032951577255374724 0.0 0.45972767135933534 0.5171936302792522 0.023078698361412416 0.0 0.12135014233428223 0.7178527856852379 0.1602277348515657 0.0005693371289141927 0.08383889066277425 0.6857638096975779 0.22957624412717237 0.0008210555124754824 </TABLE>
    </DEFINITION>
  </NETWORK>
</BIF>
